{
  "layers": [
    {
      "activation": 1,
      "biases": [
        -0.029862557390787744,
        0.04924398733564868,
        -0.08852641094863459,
        0.23903689189406555,
        0.24358516587322354,
        -0.05456240734169524
      ],
      "cols": 6,
      "rows": 13,
      "weights": [
        [
          -0.07598760821500755,
          0.023731277385092925,
          0.03916292775975867,
          -0.9050424484005041,
          -1.0911124516320718,
          0.060409663084574676
        ],
        [
          -0.33864878388369646,
          -0.5420420858401834,
          0.24201974259584488,
          -0.3423373577896759,
          0.03530996703960229,
          0.078900547591514
        ],
        [
          0.3852017381442995,
          0.2612622728468411,
          -0.17494421111253405,
          0.4499947833406575,
          -0.14949455317722923,
          -0.7773477929937098
        ],
        [
          -0.014228301660237802,
          0.2904110750758843,
          0.17574626196692342,
          0.21125053813944597,
          -0.33236013563733496,
          0.36012305293263913
        ],
        [
          0.31850070566871214,
          -0.3231389047184632,
          0.7637703603727131,
          -0.0902028921367095,
          -0.3650915589876569,
          -0.2383796260882963
        ],
        [
          -0.07752303798963103,
          0.05400870241621619,
          0.4784641797870083,
          -0.021554200089058666,
          0.32302540220518206,
          0.1528912881211604
        ],
        [
          -0.010122383977128275,
          0.4617479224574234,
          -0.2539422601548328,
          -1.0754434165197346,
          0.2184209715165054,
          -1.1592368207396588
        ],
        [
          0.11960209997315371,
          -0.5024304920140475,
          -0.320220552233411,
          0.5887528464480893,
          -0.7649995846321752,
          0.41373495722396325
        ],
        [
          0.556373120123682,
          0.6991191836540114,
          0.2644147658102749,
          0.44994877175403947,
          0.21694427412343348,
          -0.019359281407421845
        ],
        [
          0.5796079143613035,
          0.20564724275243684,
          -0.12605016226186572,
          -0.16434489241971936,
          0.0024554470801926116,
          0.11149834959364999
        ],
        [
          -0.16499753060069244,
          0.34775218979270534,
          0.15201634940005915,
          0.10956799418874488,
          0.03101717426740816,
          0.08358765113641484
        ],
        [
          0.20753960340452357,
          0.7013398318932211,
          0.4316525733401767,
          0.03881042066655637,
          -0.3101528167001162,
          0.3563528254304413
        ],
        [
          0.14571267691182227,
          -0.2903234556481824,
          0.6486511826829081,
          0.3753881883728832,
          0.2045504201107884,
          -0.1356988808706188
        ]
      ]
    },
    {
      "activation": 0,
      "biases": [
        0.20930760282212904,
        -0.19589242416838143,
        0.06832451579725231
      ],
      "cols": 3,
      "rows": 6,
      "weights": [
        [
          0.5502165698924221,
          0.10642244672404882,
          -0.08179792062743409
        ],
        [
          0.2674314599519739,
          0.14004945266446905,
          -0.9392999368836489
        ],
        [
          0.9969406064853497,
          0.33052468035079474,
          0.07026816281955063
        ],
        [
          -0.9553973949862425,
          -0.7715443994334851,
          1.0065562386748652
        ],
        [
          -1.4527128435033105,
          0.23870319318932928,
          -0.019029416497511536
        ],
        [
          0.3082220098273111,
          0.23537728577733893,
          1.2258906705532608
        ]
      ]
    }
  ]
}
